digraph Tree {
node [shape=box, style="filled, rounded", color="black", fontname="helvetica"] ;
edge [fontname="helvetica"] ;
0 [label="time_of_day <= 1.5\ngini = 0.806\nsamples = 48\nvalue = [8, 13, 9, 10, 3, 5]\nclass = Classical", fillcolor="#f7fdef"] ;
1 [label="country <= 0.5\ngini = 0.642\nsamples = 24\nvalue = [0, 0, 9, 10, 0, 5]\nclass = HipHop", fillcolor="#f2f8fd"] ;
0 -> 1 [labeldistance=2.5, labelangle=45, headlabel="True"] ;
2 [label="gini = 0.0\nsamples = 6\nvalue = [0, 0, 6, 0, 0, 0]\nclass = Dance", fillcolor="#39e581"] ;
1 -> 2 ;
3 [label="gender <= 0.5\ngini = 0.586\nsamples = 18\nvalue = [0, 0, 3, 10, 0, 5]\nclass = HipHop", fillcolor="#b3d9f5"] ;
1 -> 3 ;
4 [label="mood <= 1.5\ngini = 0.48\nsamples = 5\nvalue = [0, 0, 3, 0, 0, 2]\nclass = Dance", fillcolor="#bdf6d5"] ;
3 -> 4 ;
5 [label="gini = 0.0\nsamples = 2\nvalue = [0, 0, 0, 0, 0, 2]\nclass = Pop", fillcolor="#e5399d"] ;
4 -> 5 ;
6 [label="gini = 0.0\nsamples = 3\nvalue = [0, 0, 3, 0, 0, 0]\nclass = Dance", fillcolor="#39e581"] ;
4 -> 6 ;
7 [label="hobby <= 4.5\ngini = 0.355\nsamples = 13\nvalue = [0, 0, 0, 10, 0, 3]\nclass = HipHop", fillcolor="#74baed"] ;
3 -> 7 ;
8 [label="gini = 0.0\nsamples = 8\nvalue = [0, 0, 0, 8, 0, 0]\nclass = HipHop", fillcolor="#399de5"] ;
7 -> 8 ;
9 [label="time_of_day <= 0.5\ngini = 0.48\nsamples = 5\nvalue = [0, 0, 0, 2, 0, 3]\nclass = Pop", fillcolor="#f6bdde"] ;
7 -> 9 ;
10 [label="gini = 0.0\nsamples = 3\nvalue = [0, 0, 0, 0, 0, 3]\nclass = Pop", fillcolor="#e5399d"] ;
9 -> 10 ;
11 [label="gini = 0.0\nsamples = 2\nvalue = [0, 0, 0, 2, 0, 0]\nclass = HipHop", fillcolor="#399de5"] ;
9 -> 11 ;
12 [label="hobby <= 4.0\ngini = 0.58\nsamples = 24\nvalue = [8, 13, 0, 0, 3, 0]\nclass = Classical", fillcolor="#e0f7c1"] ;
0 -> 12 [labeldistance=2.5, labelangle=-45, headlabel="False"] ;
13 [label="gini = 0.0\nsamples = 8\nvalue = [8, 0, 0, 0, 0, 0]\nclass = Acoustic", fillcolor="#e58139"] ;
12 -> 13 ;
14 [label="country <= 1.5\ngini = 0.305\nsamples = 16\nvalue = [0, 13, 0, 0, 3, 0]\nclass = Classical", fillcolor="#b4eb67"] ;
12 -> 14 ;
15 [label="gini = 0.0\nsamples = 11\nvalue = [0, 11, 0, 0, 0, 0]\nclass = Classical", fillcolor="#9de539"] ;
14 -> 15 ;
16 [label="gender <= 0.5\ngini = 0.48\nsamples = 5\nvalue = [0, 2, 0, 0, 3, 0]\nclass = Jazz", fillcolor="#d5bdf6"] ;
14 -> 16 ;
17 [label="gini = 0.0\nsamples = 2\nvalue = [0, 2, 0, 0, 0, 0]\nclass = Classical", fillcolor="#9de539"] ;
16 -> 17 ;
18 [label="gini = 0.0\nsamples = 3\nvalue = [0, 0, 0, 0, 3, 0]\nclass = Jazz", fillcolor="#8139e5"] ;
16 -> 18 ;
}